<?xml version="1.0" encoding="UTF-8"?>
<PMML xmlns="http://www.dmg.org/PMML-4_4" version="4.4.1">
    <Header copyright="Copyright (c) 2021 Software AG" description="Default description">
        <Application name="Nyoka" version="5.5.0"/>
        <Timestamp>2023-10-02 17:09:01.782712</Timestamp>
    </Header>
    <DataDictionary numberOfFields="5">
        <DataField name="sepal_length" optype="continuous" dataType="double"/>
        <DataField name="sepal_width" optype="continuous" dataType="double"/>
        <DataField name="petal_length" optype="continuous" dataType="double"/>
        <DataField name="petal_width" optype="continuous" dataType="double"/>
        <DataField name="target" optype="categorical" dataType="integer">
            <Value value="0"/>
            <Value value="1"/>
            <Value value="2"/>
        </DataField>
    </DataDictionary>
    <MiningModel modelName="LightGBModel" functionName="classification">
        <MiningSchema>
            <MiningField name="sepal_length" usageType="active" optype="continuous"/>
            <MiningField name="sepal_width" usageType="active" optype="continuous"/>
            <MiningField name="petal_length" usageType="active" optype="continuous"/>
            <MiningField name="petal_width" usageType="active" optype="continuous"/>
            <MiningField name="target" usageType="target" optype="categorical"/>
        </MiningSchema>
        <Output>
            <OutputField name="probability_0" optype="continuous" dataType="double" feature="probability" value="0"/>
            <OutputField name="probability_1" optype="continuous" dataType="double" feature="probability" value="1"/>
            <OutputField name="probability_2" optype="continuous" dataType="double" feature="probability" value="2"/>
            <OutputField name="predicted_target" optype="categorical" dataType="integer" feature="predictedValue"/>
        </Output>
        <Segmentation multipleModelMethod="modelChain" missingThreshold="1">
            <Segment id="1" weight="1">
                <True/>
                <MiningModel modelName="MiningModel" functionName="regression">
                    <MiningSchema>
                        <MiningField name="sepal_length" usageType="active"/>
                        <MiningField name="sepal_width" usageType="active"/>
                        <MiningField name="petal_length" usageType="active"/>
                        <MiningField name="petal_width" usageType="active"/>
                    </MiningSchema>
                    <Output>
                        <OutputField name="lgbValue(0)" optype="continuous" dataType="float" feature="predictedValue"/>
                    </Output>
                    <Segmentation multipleModelMethod="sum" missingThreshold="1">
                        <Segment id="1" weight="1">
                            <True/>
                            <TreeModel modelName="DecisionTreeModel" functionName="regression" missingValuePenalty="1.0" noTrueChildStrategy="returnLastPrediction">
                                <MiningSchema>
                                    <MiningField name="sepal_length" usageType="active"/>
                                    <MiningField name="sepal_width" usageType="active"/>
                                    <MiningField name="petal_length" usageType="active"/>
                                    <MiningField name="petal_width" usageType="active"/>
                                </MiningSchema>
                                <Node>
                                    <True/>
                                    <Node score="-0.8445645407065308">
                                        <SimplePredicate field="petal_length" operator="lessOrEqual" value="1.8000000000000000"/>
                                    </Node>
                                    <Node>
                                        <SimplePredicate field="petal_length" operator="greaterThan" value="1.8000000000000000"/>
                                        <Node score="-1.1219810196711746">
                                            <SimplePredicate field="petal_length" operator="lessOrEqual" value="4.5500000000000007"/>
                                        </Node>
                                        <Node score="-1.1351913281933006">
                                            <SimplePredicate field="petal_length" operator="greaterThan" value="4.5500000000000007"/>
                                        </Node>
                                    </Node>
                                </Node>
                            </TreeModel>
                        </Segment>
                        <Segment id="2" weight="1">
                            <True/>
                            <TreeModel modelName="DecisionTreeModel" functionName="regression" missingValuePenalty="1.0" noTrueChildStrategy="returnLastPrediction">
                                <MiningSchema>
                                    <MiningField name="sepal_length" usageType="active"/>
                                    <MiningField name="sepal_width" usageType="active"/>
                                    <MiningField name="petal_length" usageType="active"/>
                                    <MiningField name="petal_width" usageType="active"/>
                                </MiningSchema>
                                <Node>
                                    <True/>
                                    <Node score="0.1582351962196404">
                                        <SimplePredicate field="petal_width" operator="lessOrEqual" value="0.5000000000000001"/>
                                    </Node>
                                    <Node>
                                        <SimplePredicate field="petal_width" operator="greaterThan" value="0.5000000000000001"/>
                                        <Node score="-0.08589503518532701">
                                            <SimplePredicate field="petal_length" operator="lessOrEqual" value="4.5500000000000007"/>
                                        </Node>
                                        <Node>
                                            <SimplePredicate field="petal_length" operator="greaterThan" value="4.5500000000000007"/>
                                            <Node score="-0.0978932665118946">
                                                <SimplePredicate field="petal_width" operator="lessOrEqual" value="1.8500000000000003"/>
                                            </Node>
                                            <Node score="-0.09766753394952507">
                                                <SimplePredicate field="petal_width" operator="greaterThan" value="1.8500000000000003"/>
                                            </Node>
                                        </Node>
                                    </Node>
                                </Node>
                            </TreeModel>
                        </Segment>
                        <Segment id="3" weight="1">
                            <True/>
                            <TreeModel modelName="DecisionTreeModel" functionName="regression" missingValuePenalty="1.0" noTrueChildStrategy="returnLastPrediction">
                                <MiningSchema>
                                    <MiningField name="sepal_length" usageType="active"/>
                                    <MiningField name="sepal_width" usageType="active"/>
                                    <MiningField name="petal_length" usageType="active"/>
                                    <MiningField name="petal_width" usageType="active"/>
                                </MiningSchema>
                                <Node>
                                    <True/>
                                    <Node score="0.13781427091388437">
                                        <SimplePredicate field="petal_width" operator="lessOrEqual" value="0.5000000000000001"/>
                                    </Node>
                                    <Node>
                                        <SimplePredicate field="petal_width" operator="greaterThan" value="0.5000000000000001"/>
                                        <Node score="-0.0810810181620158">
                                            <SimplePredicate field="petal_length" operator="lessOrEqual" value="4.5500000000000007"/>
                                        </Node>
                                        <Node>
                                            <SimplePredicate field="petal_length" operator="greaterThan" value="4.5500000000000007"/>
                                            <Node score="-0.0932642854525336">
                                                <SimplePredicate field="petal_width" operator="lessOrEqual" value="1.8500000000000003"/>
                                            </Node>
                                            <Node score="-0.09289722153478208">
                                                <SimplePredicate field="petal_width" operator="greaterThan" value="1.8500000000000003"/>
                                            </Node>
                                        </Node>
                                    </Node>
                                </Node>
                            </TreeModel>
                        </Segment>
                        <Segment id="4" weight="1">
                            <True/>
                            <TreeModel modelName="DecisionTreeModel" functionName="regression" missingValuePenalty="1.0" noTrueChildStrategy="returnLastPrediction">
                                <MiningSchema>
                                    <MiningField name="sepal_length" usageType="active"/>
                                    <MiningField name="sepal_width" usageType="active"/>
                                    <MiningField name="petal_length" usageType="active"/>
                                    <MiningField name="petal_width" usageType="active"/>
                                </MiningSchema>
                                <Node>
                                    <True/>
                                    <Node score="0.12402386651159968">
                                        <SimplePredicate field="petal_length" operator="lessOrEqual" value="1.8000000000000000"/>
                                    </Node>
                                    <Node>
                                        <SimplePredicate field="petal_length" operator="greaterThan" value="1.8000000000000000"/>
                                        <Node score="-0.07752318217438414">
                                            <SimplePredicate field="petal_length" operator="lessOrEqual" value="4.5500000000000007"/>
                                        </Node>
                                        <Node>
                                            <SimplePredicate field="petal_length" operator="greaterThan" value="4.5500000000000007"/>
                                            <Node score="-0.08978529673106801">
                                                <SimplePredicate field="petal_width" operator="lessOrEqual" value="1.8500000000000003"/>
                                            </Node>
                                            <Node score="-0.08901887268502572">
                                                <SimplePredicate field="petal_width" operator="greaterThan" value="1.8500000000000003"/>
                                            </Node>
                                        </Node>
                                    </Node>
                                </Node>
                            </TreeModel>
                        </Segment>
                        <Segment id="5" weight="1">
                            <True/>
                            <TreeModel modelName="DecisionTreeModel" functionName="regression" missingValuePenalty="1.0" noTrueChildStrategy="returnLastPrediction">
                                <MiningSchema>
                                    <MiningField name="sepal_length" usageType="active"/>
                                    <MiningField name="sepal_width" usageType="active"/>
                                    <MiningField name="petal_length" usageType="active"/>
                                    <MiningField name="petal_width" usageType="active"/>
                                </MiningSchema>
                                <Node>
                                    <True/>
                                    <Node score="0.1132537950502076">
                                        <SimplePredicate field="petal_width" operator="lessOrEqual" value="0.5000000000000001"/>
                                    </Node>
                                    <Node>
                                        <SimplePredicate field="petal_width" operator="greaterThan" value="0.5000000000000001"/>
                                        <Node score="-0.08742971676581854">
                                            <SimplePredicate field="sepal_width" operator="lessOrEqual" value="2.9500000000000006"/>
                                        </Node>
                                        <Node score="-0.07524337866547334">
                                            <SimplePredicate field="sepal_width" operator="greaterThan" value="2.9500000000000006"/>
                                        </Node>
                                    </Node>
                                </Node>
                            </TreeModel>
                        </Segment>
                        <Segment id="6" weight="1">
                            <True/>
                            <TreeModel modelName="DecisionTreeModel" functionName="regression" missingValuePenalty="1.0" noTrueChildStrategy="returnLastPrediction">
                                <MiningSchema>
                                    <MiningField name="sepal_length" usageType="active"/>
                                    <MiningField name="sepal_width" usageType="active"/>
                                    <MiningField name="petal_length" usageType="active"/>
                                    <MiningField name="petal_width" usageType="active"/>
                                </MiningSchema>
                                <Node>
                                    <True/>
                                    <Node score="0.10566833757384175">
                                        <SimplePredicate field="petal_length" operator="lessOrEqual" value="1.8000000000000000"/>
                                    </Node>
                                    <Node>
                                        <SimplePredicate field="petal_length" operator="greaterThan" value="1.8000000000000000"/>
                                        <Node score="-0.07086900066035294">
                                            <SimplePredicate field="petal_length" operator="lessOrEqual" value="4.5500000000000007"/>
                                        </Node>
                                        <Node>
                                            <SimplePredicate field="petal_length" operator="greaterThan" value="4.5500000000000007"/>
                                            <Node score="-0.08427292163895">
                                                <SimplePredicate field="petal_width" operator="lessOrEqual" value="1.8500000000000003"/>
                                            </Node>
                                            <Node score="-0.0831971364461673">
                                                <SimplePredicate field="petal_width" operator="greaterThan" value="1.8500000000000003"/>
                                            </Node>
                                        </Node>
                                    </Node>
                                </Node>
                            </TreeModel>
                        </Segment>
                        <Segment id="7" weight="1">
                            <True/>
                            <TreeModel modelName="DecisionTreeModel" functionName="regression" missingValuePenalty="1.0" noTrueChildStrategy="returnLastPrediction">
                                <MiningSchema>
                                    <MiningField name="sepal_length" usageType="active"/>
                                    <MiningField name="sepal_width" usageType="active"/>
                                    <MiningField name="petal_length" usageType="active"/>
                                    <MiningField name="petal_width" usageType="active"/>
                                </MiningSchema>
                                <Node>
                                    <True/>
                                    <Node score="0.09333329103314221">
                                        <SimplePredicate field="petal_length" operator="lessOrEqual" value="3.4500000000000006"/>
                                    </Node>
                                    <Node>
                                        <SimplePredicate field="petal_length" operator="greaterThan" value="3.4500000000000006"/>
                                        <Node score="-0.08344411444605054">
                                            <SimplePredicate field="petal_width" operator="lessOrEqual" value="1.6500000000000001"/>
                                        </Node>
                                        <Node score="-0.08101765431604503">
                                            <SimplePredicate field="petal_width" operator="greaterThan" value="1.6500000000000001"/>
                                        </Node>
                                    </Node>
                                </Node>
                            </TreeModel>
                        </Segment>
                        <Segment id="8" weight="1">
                            <True/>
                            <TreeModel modelName="DecisionTreeModel" functionName="regression" missingValuePenalty="1.0" noTrueChildStrategy="returnLastPrediction">
                                <MiningSchema>
                                    <MiningField name="sepal_length" usageType="active"/>
                                    <MiningField name="sepal_width" usageType="active"/>
                                    <MiningField name="petal_length" usageType="active"/>
                                    <MiningField name="petal_width" usageType="active"/>
                                </MiningSchema>
                                <Node>
                                    <True/>
                                    <Node score="0.08791257834205779">
                                        <SimplePredicate field="petal_length" operator="lessOrEqual" value="3.4500000000000006"/>
                                    </Node>
                                    <Node>
                                        <SimplePredicate field="petal_length" operator="greaterThan" value="3.4500000000000006"/>
                                        <Node score="-0.08141199236680312">
                                            <SimplePredicate field="petal_width" operator="lessOrEqual" value="1.6500000000000001"/>
                                        </Node>
                                        <Node score="-0.07909913231313992">
                                            <SimplePredicate field="petal_width" operator="greaterThan" value="1.6500000000000001"/>
                                        </Node>
                                    </Node>
                                </Node>
                            </TreeModel>
                        </Segment>
                        <Segment id="9" weight="1">
                            <True/>
                            <TreeModel modelName="DecisionTreeModel" functionName="regression" missingValuePenalty="1.0" noTrueChildStrategy="returnLastPrediction">
                                <MiningSchema>
                                    <MiningField name="sepal_length" usageType="active"/>
                                    <MiningField name="sepal_width" usageType="active"/>
                                    <MiningField name="petal_length" usageType="active"/>
                                    <MiningField name="petal_width" usageType="active"/>
                                </MiningSchema>
                                <Node>
                                    <True/>
                                    <Node score="0.08330080728578587">
                                        <SimplePredicate field="petal_length" operator="lessOrEqual" value="3.4500000000000006"/>
                                    </Node>
                                    <Node>
                                        <SimplePredicate field="petal_length" operator="greaterThan" value="3.4500000000000006"/>
                                        <Node score="-0.07970986280752514">
                                            <SimplePredicate field="petal_width" operator="lessOrEqual" value="1.6500000000000001"/>
                                        </Node>
                                        <Node score="-0.07749210748612799">
                                            <SimplePredicate field="petal_width" operator="greaterThan" value="1.6500000000000001"/>
                                        </Node>
                                    </Node>
                                </Node>
                            </TreeModel>
                        </Segment>
                        <Segment id="10" weight="1">
                            <True/>
                            <TreeModel modelName="DecisionTreeModel" functionName="regression" missingValuePenalty="1.0" noTrueChildStrategy="returnLastPrediction">
                                <MiningSchema>
                                    <MiningField name="sepal_length" usageType="active"/>
                                    <MiningField name="sepal_width" usageType="active"/>
                                    <MiningField name="petal_length" usageType="active"/>
                                    <MiningField name="petal_width" usageType="active"/>
                                </MiningSchema>
                                <Node>
                                    <True/>
                                    <Node score="0.08721884146819164">
                                        <SimplePredicate field="petal_length" operator="lessOrEqual" value="1.8000000000000000"/>
                                    </Node>
                                    <Node>
                                        <SimplePredicate field="petal_length" operator="greaterThan" value="1.8000000000000000"/>
                                        <Node score="-0.05882542255159256">
                                            <SimplePredicate field="sepal_length" operator="lessOrEqual" value="5.8500000000000005"/>
                                        </Node>
                                        <Node>
                                            <SimplePredicate field="sepal_length" operator="greaterThan" value="5.8500000000000005"/>
                                            <Node score="-0.07744066884150116">
                                                <SimplePredicate field="petal_width" operator="lessOrEqual" value="1.8500000000000003"/>
                                            </Node>
                                            <Node score="-0.07594423274555587">
                                                <SimplePredicate field="petal_width" operator="greaterThan" value="1.8500000000000003"/>
                                            </Node>
                                        </Node>
                                    </Node>
                                </Node>
                            </TreeModel>
                        </Segment>
                        <Segment id="11" weight="1">
                            <True/>
                            <TreeModel modelName="DecisionTreeModel" functionName="regression" missingValuePenalty="1.0" noTrueChildStrategy="returnLastPrediction">
                                <MiningSchema>
                                    <MiningField name="sepal_length" usageType="active"/>
                                    <MiningField name="sepal_width" usageType="active"/>
                                    <MiningField name="petal_length" usageType="active"/>
                                    <MiningField name="petal_width" usageType="active"/>
                                </MiningSchema>
                                <Node>
                                    <True/>
                                    <Node score="0.08461894874068497">
                                        <SimplePredicate field="petal_width" operator="lessOrEqual" value="0.5000000000000001"/>
                                    </Node>
                                    <Node>
                                        <SimplePredicate field="petal_width" operator="greaterThan" value="0.5000000000000001"/>
                                        <Node score="-0.053446362798502615">
                                            <SimplePredicate field="sepal_length" operator="lessOrEqual" value="5.7500000000000009"/>
                                        </Node>
                                        <Node>
                                            <SimplePredicate field="sepal_length" operator="greaterThan" value="5.7500000000000009"/>
                                            <Node score="-0.07633774350911257">
                                                <SimplePredicate field="petal_width" operator="lessOrEqual" value="1.8500000000000003"/>
                                            </Node>
                                            <Node score="-0.07469403466211409">
                                                <SimplePredicate field="petal_width" operator="greaterThan" value="1.8500000000000003"/>
                                            </Node>
                                        </Node>
                                    </Node>
                                </Node>
                            </TreeModel>
                        </Segment>
                        <Segment id="12" weight="1">
                            <True/>
                            <TreeModel modelName="DecisionTreeModel" functionName="regression" missingValuePenalty="1.0" noTrueChildStrategy="returnLastPrediction">
                                <MiningSchema>
                                    <MiningField name="sepal_length" usageType="active"/>
                                    <MiningField name="sepal_width" usageType="active"/>
                                    <MiningField name="petal_length" usageType="active"/>
                                    <MiningField name="petal_width" usageType="active"/>
                                </MiningSchema>
                                <Node>
                                    <True/>
                                    <Node score="0.07487607083880364">
                                        <SimplePredicate field="petal_length" operator="lessOrEqual" value="3.4500000000000006"/>
                                    </Node>
                                    <Node>
                                        <SimplePredicate field="petal_length" operator="greaterThan" value="3.4500000000000006"/>
                                        <Node score="-0.07591013335481116">
                                            <SimplePredicate field="sepal_length" operator="lessOrEqual" value="6.1500000000000012"/>
                                        </Node>
                                        <Node score="-0.0740947075275916">
                                            <SimplePredicate field="sepal_length" operator="greaterThan" value="6.1500000000000012"/>
                                        </Node>
                                    </Node>
                                </Node>
                            </TreeModel>
                        </Segment>
                        <Segment id="13" weight="1">
                            <True/>
                            <TreeModel modelName="DecisionTreeModel" functionName="regression" missingValuePenalty="1.0" noTrueChildStrategy="returnLastPrediction">
                                <MiningSchema>
                                    <MiningField name="sepal_length" usageType="active"/>
                                    <MiningField name="sepal_width" usageType="active"/>
                                    <MiningField name="petal_length" usageType="active"/>
                                    <MiningField name="petal_width" usageType="active"/>
                                </MiningSchema>
                                <Node>
                                    <True/>
                                    <Node score="0.0719667796854314">
                                        <SimplePredicate field="petal_length" operator="lessOrEqual" value="3.4500000000000006"/>
                                    </Node>
                                    <Node>
                                        <SimplePredicate field="petal_length" operator="greaterThan" value="3.4500000000000006"/>
                                        <Node>
                                            <SimplePredicate field="petal_width" operator="lessOrEqual" value="1.8500000000000003"/>
                                            <Node score="-0.07492980259737078">
                                                <SimplePredicate field="petal_length" operator="lessOrEqual" value="4.5500000000000007"/>
                                            </Node>
                                            <Node score="-0.07430903762008197">
                                                <SimplePredicate field="petal_length" operator="greaterThan" value="4.5500000000000007"/>
                                            </Node>
                                        </Node>
                                        <Node score="-0.07277250327522315">
                                            <SimplePredicate field="petal_width" operator="greaterThan" value="1.8500000000000003"/>
                                        </Node>
                                    </Node>
                                </Node>
                            </TreeModel>
                        </Segment>
                        <Segment id="14" weight="1">
                            <True/>
                            <TreeModel modelName="DecisionTreeModel" functionName="regression" missingValuePenalty="1.0" noTrueChildStrategy="returnLastPrediction">
                                <MiningSchema>
                                    <MiningField name="sepal_length" usageType="active"/>
                                    <MiningField name="sepal_width" usageType="active"/>
                                    <MiningField name="petal_length" usageType="active"/>
                                    <MiningField name="petal_width" usageType="active"/>
                                </MiningSchema>
                                <Node>
                                    <True/>
                                    <Node score="0.07891921616096371">
                                        <SimplePredicate field="petal_width" operator="lessOrEqual" value="0.5000000000000001"/>
                                    </Node>
                                    <Node>
                                        <SimplePredicate field="petal_width" operator="greaterThan" value="0.5000000000000001"/>
                                        <Node score="-0.04915142589859651">
                                            <SimplePredicate field="sepal_length" operator="lessOrEqual" value="5.7500000000000009"/>
                                        </Node>
                                        <Node>
                                            <SimplePredicate field="sepal_length" operator="greaterThan" value="5.7500000000000009"/>
                                            <Node score="-0.07362776297820339">
                                                <SimplePredicate field="petal_width" operator="lessOrEqual" value="1.8500000000000003"/>
                                            </Node>
                                            <Node score="-0.0719915615163291">
                                                <SimplePredicate field="petal_width" operator="greaterThan" value="1.8500000000000003"/>
                                            </Node>
                                        </Node>
                                    </Node>
                                </Node>
                            </TreeModel>
                        </Segment>
                        <Segment id="15" weight="1">
                            <True/>
                            <TreeModel modelName="DecisionTreeModel" functionName="regression" missingValuePenalty="1.0" noTrueChildStrategy="returnLastPrediction">
                                <MiningSchema>
                                    <MiningField name="sepal_length" usageType="active"/>
                                    <MiningField name="sepal_width" usageType="active"/>
                                    <MiningField name="petal_length" usageType="active"/>
                                    <MiningField name="petal_width" usageType="active"/>
                                </MiningSchema>
                                <Node>
                                    <True/>
                                    <Node score="0.07759913898828831">
                                        <SimplePredicate field="petal_length" operator="lessOrEqual" value="1.8000000000000000"/>
                                    </Node>
                                    <Node>
                                        <SimplePredicate field="petal_length" operator="greaterThan" value="1.8000000000000000"/>
                                        <Node score="-0.044874599288656815">
                                            <SimplePredicate field="petal_length" operator="lessOrEqual" value="4.0500000000000007"/>
                                        </Node>
                                        <Node>
                                            <SimplePredicate field="petal_length" operator="greaterThan" value="4.0500000000000007"/>
                                            <Node score="-0.07356896252616911">
                                                <SimplePredicate field="petal_width" operator="lessOrEqual" value="1.6500000000000001"/>
                                            </Node>
                                            <Node score="-0.07166000507063652">
                                                <SimplePredicate field="petal_width" operator="greaterThan" value="1.6500000000000001"/>
                                            </Node>
                                        </Node>
                                    </Node>
                                </Node>
                            </TreeModel>
                        </Segment>
                        <Segment id="16" weight="1">
                            <True/>
                            <TreeModel modelName="DecisionTreeModel" functionName="regression" missingValuePenalty="1.0" noTrueChildStrategy="returnLastPrediction">
                                <MiningSchema>
                                    <MiningField name="sepal_length" usageType="active"/>
                                    <MiningField name="sepal_width" usageType="active"/>
                                    <MiningField name="petal_length" usageType="active"/>
                                    <MiningField name="petal_width" usageType="active"/>
                                </MiningSchema>
                                <Node>
                                    <True/>
                                    <Node score="0.07659356692485612">
                                        <SimplePredicate field="petal_width" operator="lessOrEqual" value="0.5000000000000001"/>
                                    </Node>
                                    <Node>
                                        <SimplePredicate field="petal_width" operator="greaterThan" value="0.5000000000000001"/>
                                        <Node score="-0.04454385076196164">
                                            <SimplePredicate field="petal_length" operator="lessOrEqual" value="4.0500000000000007"/>
                                        </Node>
                                        <Node>
                                            <SimplePredicate field="petal_length" operator="greaterThan" value="4.0500000000000007"/>
                                            <Node score="-0.07287701619984804">
                                                <SimplePredicate field="petal_width" operator="lessOrEqual" value="1.6500000000000001"/>
                                            </Node>
                                            <Node score="-0.0710817030451483">
                                                <SimplePredicate field="petal_width" operator="greaterThan" value="1.6500000000000001"/>
                                            </Node>
                                        </Node>
                                    </Node>
                                </Node>
                            </TreeModel>
                        </Segment>
                        <Segment id="17" weight="1">
                            <True/>
                            <TreeModel modelName="DecisionTreeModel" functionName="regression" missingValuePenalty="1.0" noTrueChildStrategy="returnLastPrediction">
                                <MiningSchema>
                                    <MiningField name="sepal_length" usageType="active"/>
                                    <MiningField name="sepal_width" usageType="active"/>
                                    <MiningField name="petal_length" usageType="active"/>
                                    <MiningField name="petal_width" usageType="active"/>
                                </MiningSchema>
                                <Node>
                                    <True/>
                                    <Node score="0.07562831436796635">
                                        <SimplePredicate field="petal_length" operator="lessOrEqual" value="1.8000000000000000"/>
                                    </Node>
                                    <Node>
                                        <SimplePredicate field="petal_length" operator="greaterThan" value="1.8000000000000000"/>
                                        <Node score="-0.043693471172228326">
                                            <SimplePredicate field="petal_length" operator="lessOrEqual" value="4.0500000000000007"/>
                                        </Node>
                                        <Node>
                                            <SimplePredicate field="petal_length" operator="greaterThan" value="4.0500000000000007"/>
                                            <Node score="-0.07224458546522562">
                                                <SimplePredicate field="petal_width" operator="lessOrEqual" value="1.6500000000000001"/>
                                            </Node>
                                            <Node score="-0.07057541269118923">
                                                <SimplePredicate field="petal_width" operator="greaterThan" value="1.6500000000000001"/>
                                            </Node>
                                        </Node>
                                    </Node>
                                </Node>
                            </TreeModel>
                        </Segment>
                        <Segment id="18" weight="1">
                            <True/>
                            <TreeModel modelName="DecisionTreeModel" functionName="regression" missingValuePenalty="1.0" noTrueChildStrategy="returnLastPrediction">
                                <MiningSchema>
                                    <MiningField name="sepal_length" usageType="active"/>
                                    <MiningField name="sepal_width" usageType="active"/>
                                    <MiningField name="petal_length" usageType="active"/>
                                    <MiningField name="petal_width" usageType="active"/>
                                </MiningSchema>
                                <Node>
                                    <True/>
                                    <Node score="0.07494003893164114">
                                        <SimplePredicate field="petal_width" operator="lessOrEqual" value="0.5000000000000001"/>
                                    </Node>
                                    <Node>
                                        <SimplePredicate field="petal_width" operator="greaterThan" value="0.5000000000000001"/>
                                        <Node score="-0.04356178483104081">
                                            <SimplePredicate field="petal_length" operator="lessOrEqual" value="4.0500000000000007"/>
                                        </Node>
                                        <Node>
                                            <SimplePredicate field="petal_length" operator="greaterThan" value="4.0500000000000007"/>
                                            <Node score="-0.07169835257437394">
                                                <SimplePredicate field="petal_width" operator="lessOrEqual" value="1.6500000000000001"/>
                                            </Node>
                                            <Node score="-0.07014218762426981">
                                                <SimplePredicate field="petal_width" operator="greaterThan" value="1.6500000000000001"/>
                                            </Node>
                                        </Node>
                                    </Node>
                                </Node>
                            </TreeModel>
                        </Segment>
                        <Segment id="19" weight="1">
                            <True/>
                            <TreeModel modelName="DecisionTreeModel" functionName="regression" missingValuePenalty="1.0" noTrueChildStrategy="returnLastPrediction">
                                <MiningSchema>
                                    <MiningField name="sepal_length" usageType="active"/>
                                    <MiningField name="sepal_width" usageType="active"/>
                                    <MiningField name="petal_length" usageType="active"/>
                                    <MiningField name="petal_width" usageType="active"/>
                                </MiningSchema>
                                <Node>
                                    <True/>
                                    <Node score="0.0742176166136617">
                                        <SimplePredicate field="petal_length" operator="lessOrEqual" value="1.8000000000000000"/>
                                    </Node>
                                    <Node>
                                        <SimplePredicate field="petal_length" operator="greaterThan" value="1.8000000000000000"/>
                                        <Node score="-0.07270450245747362">
                                            <SimplePredicate field="sepal_width" operator="lessOrEqual" value="2.9500000000000006"/>
                                        </Node>
                                        <Node score="-0.04579402812053278">
                                            <SimplePredicate field="sepal_width" operator="greaterThan" value="2.9500000000000006"/>
                                        </Node>
                                    </Node>
                                </Node>
                            </TreeModel>
                        </Segment>
                        <Segment id="20" weight="1">
                            <True/>
                            <TreeModel modelName="DecisionTreeModel" functionName="regression" missingValuePenalty="1.0" noTrueChildStrategy="returnLastPrediction">
                                <MiningSchema>
                                    <MiningField name="sepal_length" usageType="active"/>
                                    <MiningField name="sepal_width" usageType="active"/>
                                    <MiningField name="petal_length" usageType="active"/>
                                    <MiningField name="petal_width" usageType="active"/>
                                </MiningSchema>
                                <Node>
                                    <True/>
                                    <Node score="0.07377488956048106">
                                        <SimplePredicate field="petal_width" operator="lessOrEqual" value="0.5000000000000001"/>
                                    </Node>
                                    <Node>
                                        <SimplePredicate field="petal_width" operator="greaterThan" value="0.5000000000000001"/>
                                        <Node score="-0.07237556484250446">
                                            <SimplePredicate field="sepal_width" operator="lessOrEqual" value="2.9500000000000006"/>
                                        </Node>
                                        <Node score="-0.04493346319903899">
                                            <SimplePredicate field="sepal_width" operator="greaterThan" value="2.9500000000000006"/>
                                        </Node>
                                    </Node>
                                </Node>
                            </TreeModel>
                        </Segment>
                        <Segment id="21" weight="1">
                            <True/>
                            <TreeModel modelName="DecisionTreeModel" functionName="regression" missingValuePenalty="1.0" noTrueChildStrategy="returnLastPrediction">
                                <MiningSchema>
                                    <MiningField name="sepal_length" usageType="active"/>
                                    <MiningField name="sepal_width" usageType="active"/>
                                    <MiningField name="petal_length" usageType="active"/>
                                    <MiningField name="petal_width" usageType="active"/>
                                </MiningSchema>
                                <Node>
                                    <True/>
                                    <Node score="0.07321147512286957">
                                        <SimplePredicate field="petal_length" operator="lessOrEqual" value="1.8000000000000000"/>
                                    </Node>
                                    <Node>
                                        <SimplePredicate field="petal_length" operator="greaterThan" value="1.8000000000000000"/>
                                        <Node score="-0.07198396079428057">
                                            <SimplePredicate field="sepal_width" operator="lessOrEqual" value="2.9500000000000006"/>
                                        </Node>
                                        <Node score="-0.04330803309912179">
                                            <SimplePredicate field="sepal_width" operator="greaterThan" value="2.9500000000000006"/>
                                        </Node>
                                    </Node>
                                </Node>
                            </TreeModel>
                        </Segment>
                        <Segment id="22" weight="1">
                            <True/>
                            <TreeModel modelName="DecisionTreeModel" functionName="regression" missingValuePenalty="1.0" noTrueChildStrategy="returnLastPrediction">
                                <MiningSchema>
                                    <MiningField name="sepal_length" usageType="active"/>
                                    <MiningField name="sepal_width" usageType="active"/>
                                    <MiningField name="petal_length" usageType="active"/>
                                    <MiningField name="petal_width" usageType="active"/>
                                </MiningSchema>
                                <Node>
                                    <True/>
                                    <Node score="0.07292221413790298">
                                        <SimplePredicate field="petal_width" operator="lessOrEqual" value="0.5000000000000001"/>
                                    </Node>
                                    <Node>
                                        <SimplePredicate field="petal_width" operator="greaterThan" value="0.5000000000000001"/>
                                        <Node score="-0.07173407556019355">
                                            <SimplePredicate field="sepal_width" operator="lessOrEqual" value="2.9500000000000006"/>
                                        </Node>
                                        <Node score="-0.04270629323132433">
                                            <SimplePredicate field="sepal_width" operator="greaterThan" value="2.9500000000000006"/>
                                        </Node>
                                    </Node>
                                </Node>
                            </TreeModel>
                        </Segment>
                        <Segment id="23" weight="1">
                            <True/>
                            <TreeModel modelName="DecisionTreeModel" functionName="regression" missingValuePenalty="1.0" noTrueChildStrategy="returnLastPrediction">
                                <MiningSchema>
                                    <MiningField name="sepal_length" usageType="active"/>
                                    <MiningField name="sepal_width" usageType="active"/>
                                    <MiningField name="petal_length" usageType="active"/>
                                    <MiningField name="petal_width" usageType="active"/>
                                </MiningSchema>
                                <Node>
                                    <True/>
                                    <Node score="0.07246908365180497">
                                        <SimplePredicate field="petal_length" operator="lessOrEqual" value="1.8000000000000000"/>
                                    </Node>
                                    <Node>
                                        <SimplePredicate field="petal_length" operator="greaterThan" value="1.8000000000000000"/>
                                        <Node score="-0.03745679247256026">
                                            <SimplePredicate field="petal_length" operator="lessOrEqual" value="4.0500000000000007"/>
                                        </Node>
                                        <Node>
                                            <SimplePredicate field="petal_length" operator="greaterThan" value="4.0500000000000007"/>
                                            <Node score="-0.06987805577302535">
                                                <SimplePredicate field="sepal_length" operator="lessOrEqual" value="6.1500000000000012"/>
                                            </Node>
                                            <Node score="-0.06885110788792746">
                                                <SimplePredicate field="sepal_length" operator="greaterThan" value="6.1500000000000012"/>
                                            </Node>
                                        </Node>
                                    </Node>
                                </Node>
                            </TreeModel>
                        </Segment>
                        <Segment id="24" weight="1">
                            <True/>
                            <TreeModel modelName="DecisionTreeModel" functionName="regression" missingValuePenalty="1.0" noTrueChildStrategy="returnLastPrediction">
                                <MiningSchema>
                                    <MiningField name="sepal_length" usageType="active"/>
                                    <MiningField name="sepal_width" usageType="active"/>
                                    <MiningField name="petal_length" usageType="active"/>
                                    <MiningField name="petal_width" usageType="active"/>
                                </MiningSchema>
                                <Node>
                                    <True/>
                                    <Node score="0.07230299004939143">
                                        <SimplePredicate field="petal_width" operator="lessOrEqual" value="0.5000000000000001"/>
                                    </Node>
                                    <Node>
                                        <SimplePredicate field="petal_width" operator="greaterThan" value="0.5000000000000001"/>
                                        <Node score="-0.03172852266957576">
                                            <SimplePredicate field="sepal_length" operator="lessOrEqual" value="5.5500000000000007"/>
                                        </Node>
                                        <Node>
                                            <SimplePredicate field="sepal_length" operator="greaterThan" value="5.5500000000000007"/>
                                            <Node score="-0.06952865584845906">
                                                <SimplePredicate field="petal_width" operator="lessOrEqual" value="1.6500000000000001"/>
                                            </Node>
                                            <Node score="-0.06847172051489443">
                                                <SimplePredicate field="petal_width" operator="greaterThan" value="1.6500000000000001"/>
                                            </Node>
                                        </Node>
                                    </Node>
                                </Node>
                            </TreeModel>
                        </Segment>
                        <Segment id="25" weight="1">
                            <True/>
                            <TreeModel modelName="DecisionTreeModel" functionName="regression" missingValuePenalty="1.0" noTrueChildStrategy="returnLastPrediction">
                                <MiningSchema>
                                    <MiningField name="sepal_length" usageType="active"/>
                                    <MiningField name="sepal_width" usageType="active"/>
                                    <MiningField name="petal_length" usageType="active"/>
                                    <MiningField name="petal_width" usageType="active"/>
                                </MiningSchema>
                                <Node>
                                    <True/>
                                    <Node score="0.07191962715104325">
                                        <SimplePredicate field="petal_length" operator="lessOrEqual" value="1.8000000000000000"/>
                                    </Node>
                                    <Node>
                                        <SimplePredicate field="petal_length" operator="greaterThan" value="1.8000000000000000"/>
                                        <Node score="-0.03016847068022718">
                                            <SimplePredicate field="petal_width" operator="lessOrEqual" value="1.2500000000000002"/>
                                        </Node>
                                        <Node>
                                            <SimplePredicate field="petal_width" operator="greaterThan" value="1.2500000000000002"/>
                                            <Node score="-0.0694014843400094">
                                                <SimplePredicate field="sepal_length" operator="lessOrEqual" value="6.1500000000000012"/>
                                            </Node>
                                            <Node score="-0.06838638332852202">
                                                <SimplePredicate field="sepal_length" operator="greaterThan" value="6.1500000000000012"/>
                                            </Node>
                                        </Node>
                                    </Node>
                                </Node>
                            </TreeModel>
                        </Segment>
                        <Segment id="26" weight="1">
                            <True/>
                            <TreeModel modelName="DecisionTreeModel" functionName="regression" missingValuePenalty="1.0" noTrueChildStrategy="returnLastPrediction">
                                <MiningSchema>
                                    <MiningField name="sepal_length" usageType="active"/>
                                    <MiningField name="sepal_width" usageType="active"/>
                                    <MiningField name="petal_length" usageType="active"/>
                                    <MiningField name="petal_width" usageType="active"/>
                                </MiningSchema>
                                <Node>
                                    <True/>
                                    <Node score="0.07168209046644324">
                                        <SimplePredicate field="petal_width" operator="lessOrEqual" value="0.5000000000000001"/>
                                    </Node>
                                    <Node>
                                        <SimplePredicate field="petal_width" operator="greaterThan" value="0.5000000000000001"/>
                                        <Node score="-0.03057901218143881">
                                            <SimplePredicate field="petal_width" operator="lessOrEqual" value="1.2500000000000002"/>
                                        </Node>
                                        <Node>
                                            <SimplePredicate field="petal_width" operator="greaterThan" value="1.2500000000000002"/>
                                            <Node score="-0.06915424505435126">
                                                <SimplePredicate field="sepal_length" operator="lessOrEqual" value="6.1500000000000012"/>
                                            </Node>
                                            <Node score="-0.06819434230152066">
                                                <SimplePredicate field="sepal_length" operator="greaterThan" value="6.1500000000000012"/>
                                            </Node>
                                        </Node>
                                    </Node>
                                </Node>
                            </TreeModel>
                        </Segment>
                        <Segment id="27" weight="1">
                            <True/>
                            <TreeModel modelName="DecisionTreeModel" functionName="regression" missingValuePenalty="1.0" noTrueChildStrategy="returnLastPrediction">
                                <MiningSchema>
                                    <MiningField name="sepal_length" usageType="active"/>
                                    <MiningField name="sepal_width" usageType="active"/>
                                    <MiningField name="petal_length" usageType="active"/>
                                    <MiningField name="petal_width" usageType="active"/>
                                </MiningSchema>
                                <Node>
                                    <True/>
                                    <Node score="0.07136360978222647">
                                        <SimplePredicate field="petal_length" operator="lessOrEqual" value="1.8000000000000000"/>
                                    </Node>
                                    <Node>
                                        <SimplePredicate field="petal_length" operator="greaterThan" value="1.8000000000000000"/>
                                        <Node score="-0.07110230490939297">
                                            <SimplePredicate field="sepal_width" operator="lessOrEqual" value="2.9500000000000006"/>
                                        </Node>
                                        <Node score="-0.03331065030972748">
                                            <SimplePredicate field="sepal_width" operator="greaterThan" value="2.9500000000000006"/>
                                        </Node>
                                    </Node>
                                </Node>
                            </TreeModel>
                        </Segment>
                        <Segment id="28" weight="1">
                            <True/>
                            <TreeModel modelName="DecisionTreeModel" functionName="regression" missingValuePenalty="1.0" noTrueChildStrategy="returnLastPrediction">
                                <MiningSchema>
                                    <MiningField name="sepal_length" usageType="active"/>
                                    <MiningField name="sepal_width" usageType="active"/>
                                    <MiningField name="petal_length" usageType="active"/>
                                    <MiningField name="petal_width" usageType="active"/>
                                </MiningSchema>
                                <Node>
                                    <True/>
                                    <Node score="0.07132037194944897">
                                        <SimplePredicate field="petal_width" operator="lessOrEqual" value="0.5000000000000001"/>
                                    </Node>
                                    <Node>
                                        <SimplePredicate field="petal_width" operator="greaterThan" value="0.5000000000000001"/>
                                        <Node score="-0.07086357580748623">
                                            <SimplePredicate field="sepal_width" operator="lessOrEqual" value="2.9500000000000006"/>
                                        </Node>
                                        <Node score="-0.033517056367087725">
                                            <SimplePredicate field="sepal_width" operator="greaterThan" value="2.9500000000000006"/>
                                        </Node>
                                    </Node>
                                </Node>
                            </TreeModel>
                        </Segment>
                        <Segment id="29" weight="1">
                            <True/>
                            <TreeModel modelName="DecisionTreeModel" functionName="regression" missingValuePenalty="1.0" noTrueChildStrategy="returnLastPrediction">
                                <MiningSchema>
                                    <MiningField name="sepal_length" usageType="active"/>
                                    <MiningField name="sepal_width" usageType="active"/>
                                    <MiningField name="petal_length" usageType="active"/>
                                    <MiningField name="petal_width" usageType="active"/>
                                </MiningSchema>
                                <Node>
                                    <True/>
                                    <Node score="0.0708891665814731">
                                        <SimplePredicate field="petal_length" operator="lessOrEqual" value="1.8000000000000000"/>
                                    </Node>
                                    <Node>
                                        <SimplePredicate field="petal_length" operator="greaterThan" value="1.8000000000000000"/>
                                        <Node score="-0.02102004459737241">
                                            <SimplePredicate field="petal_length" operator="lessOrEqual" value="3.8500000000000001"/>
                                        </Node>
                                        <Node>
                                            <SimplePredicate field="petal_length" operator="greaterThan" value="3.8500000000000001"/>
                                            <Node score="-0.06863878863373761">
                                                <SimplePredicate field="sepal_length" operator="lessOrEqual" value="6.1500000000000012"/>
                                            </Node>
                                            <Node score="-0.0678173670759595">
                                                <SimplePredicate field="sepal_length" operator="greaterThan" value="6.1500000000000012"/>
                                            </Node>
                                        </Node>
                                    </Node>
                                </Node>
                            </TreeModel>
                        </Segment>
                        <Segment id="30" weight="1">
                            <True/>
                            <TreeModel modelName="DecisionTreeModel" functionName="regression" missingValuePenalty="1.0" noTrueChildStrategy="returnLastPrediction">
                                <MiningSchema>
                                    <MiningField name="sepal_length" usageType="active"/>
                                    <MiningField name="sepal_width" usageType="active"/>
                                    <MiningField name="petal_length" usageType="active"/>
                                    <MiningField name="petal_width" usageType="active"/>
                                </MiningSchema>
                                <Node>
                                    <True/>
                                    <Node score="0.07087241744281547">
                                        <SimplePredicate field="petal_width" operator="lessOrEqual" value="0.5000000000000001"/>
                                    </Node>
                                    <Node>
                                        <SimplePredicate field="petal_width" operator="greaterThan" value="0.5000000000000001"/>
                                        <Node score="-0.013556621024696661">
                                            <SimplePredicate field="petal_length" operator="lessOrEqual" value="3.4500000000000006"/>
                                        </Node>
                                        <Node>
                                            <SimplePredicate field="petal_length" operator="greaterThan" value="3.4500000000000006"/>
                                            <Node score="-0.06850784918462553">
                                                <SimplePredicate field="sepal_length" operator="lessOrEqual" value="6.1500000000000012"/>
                                            </Node>
                                            <Node score="-0.06769433065635301">
                                                <SimplePredicate field="sepal_length" operator="greaterThan" value="6.1500000000000012"/>
                                            </Node>
                                        </Node>
                                    </Node>
                                </Node>
                            </TreeModel>
                        </Segment>
                    </Segmentation>
                </MiningModel>
            </Segment>
            <Segment id="2" weight="1">
                <True/>
                <MiningModel modelName="MiningModel" functionName="regression">
                    <MiningSchema>
                        <MiningField name="sepal_length" usageType="active"/>
                        <MiningField name="sepal_width" usageType="active"/>
                        <MiningField name="petal_length" usageType="active"/>
                        <MiningField name="petal_width" usageType="active"/>
                    </MiningSchema>
                    <Output>
                        <OutputField name="lgbValue(1)" optype="continuous" dataType="float" feature="predictedValue"/>
                    </Output>
                    <Segmentation multipleModelMethod="sum" missingThreshold="1">
                        <Segment id="1" weight="1">
                            <True/>
                            <TreeModel modelName="DecisionTreeModel" functionName="regression" missingValuePenalty="1.0" noTrueChildStrategy="returnLastPrediction">
                                <MiningSchema>
                                    <MiningField name="sepal_length" usageType="active"/>
                                    <MiningField name="sepal_width" usageType="active"/>
                                    <MiningField name="petal_length" usageType="active"/>
                                    <MiningField name="petal_width" usageType="active"/>
                                </MiningSchema>
                                <Node>
                                    <True/>
                                    <Node score="-1.3751534497242606">
                                        <SimplePredicate field="petal_length" operator="lessOrEqual" value="1.8000000000000000"/>
                                    </Node>
                                    <Node>
                                        <SimplePredicate field="petal_length" operator="greaterThan" value="1.8000000000000000"/>
                                        <Node score="-1.0853706057630435">
                                            <SimplePredicate field="petal_width" operator="lessOrEqual" value="1.6500000000000001"/>
                                        </Node>
                                        <Node score="-1.365647345848284">
                                            <SimplePredicate field="petal_width" operator="greaterThan" value="1.6500000000000001"/>
                                        </Node>
                                    </Node>
                                </Node>
                            </TreeModel>
                        </Segment>
                        <Segment id="2" weight="1">
                            <True/>
                            <TreeModel modelName="DecisionTreeModel" functionName="regression" missingValuePenalty="1.0" noTrueChildStrategy="returnLastPrediction">
                                <MiningSchema>
                                    <MiningField name="sepal_length" usageType="active"/>
                                    <MiningField name="sepal_width" usageType="active"/>
                                    <MiningField name="petal_length" usageType="active"/>
                                    <MiningField name="petal_width" usageType="active"/>
                                </MiningSchema>
                                <Node>
                                    <True/>
                                    <Node score="-0.08927096537063388">
                                        <SimplePredicate field="petal_width" operator="lessOrEqual" value="0.5000000000000001"/>
                                    </Node>
                                    <Node>
                                        <SimplePredicate field="petal_width" operator="greaterThan" value="0.5000000000000001"/>
                                        <Node score="0.1608411481573216">
                                            <SimplePredicate field="petal_width" operator="lessOrEqual" value="1.6500000000000001"/>
                                        </Node>
                                        <Node score="-0.07902871610261145">
                                            <SimplePredicate field="petal_width" operator="greaterThan" value="1.6500000000000001"/>
                                        </Node>
                                    </Node>
                                </Node>
                            </TreeModel>
                        </Segment>
                        <Segment id="3" weight="1">
                            <True/>
                            <TreeModel modelName="DecisionTreeModel" functionName="regression" missingValuePenalty="1.0" noTrueChildStrategy="returnLastPrediction">
                                <MiningSchema>
                                    <MiningField name="sepal_length" usageType="active"/>
                                    <MiningField name="sepal_width" usageType="active"/>
                                    <MiningField name="petal_length" usageType="active"/>
                                    <MiningField name="petal_width" usageType="active"/>
                                </MiningSchema>
                                <Node>
                                    <True/>
                                    <Node score="-0.0862724843092638">
                                        <SimplePredicate field="petal_width" operator="lessOrEqual" value="0.5000000000000001"/>
                                    </Node>
                                    <Node>
                                        <SimplePredicate field="petal_width" operator="greaterThan" value="0.5000000000000001"/>
                                        <Node score="0.13484136286703266">
                                            <SimplePredicate field="petal_length" operator="lessOrEqual" value="4.9500000000000011"/>
                                        </Node>
                                        <Node score="-0.07908482141329025">
                                            <SimplePredicate field="petal_length" operator="greaterThan" value="4.9500000000000011"/>
                                        </Node>
                                    </Node>
                                </Node>
                            </TreeModel>
                        </Segment>
                        <Segment id="4" weight="1">
                            <True/>
                            <TreeModel modelName="DecisionTreeModel" functionName="regression" missingValuePenalty="1.0" noTrueChildStrategy="returnLastPrediction">
                                <MiningSchema>
                                    <MiningField name="sepal_length" usageType="active"/>
                                    <MiningField name="sepal_width" usageType="active"/>
                                    <MiningField name="petal_length" usageType="active"/>
                                    <MiningField name="petal_width" usageType="active"/>
                                </MiningSchema>
                                <Node>
                                    <True/>
                                    <Node score="-0.08407066156396549">
                                        <SimplePredicate field="petal_length" operator="lessOrEqual" value="1.8000000000000000"/>
                                    </Node>
                                    <Node>
                                        <SimplePredicate field="petal_length" operator="greaterThan" value="1.8000000000000000"/>
                                        <Node score="0.11828094311158724">
                                            <SimplePredicate field="petal_length" operator="lessOrEqual" value="4.9500000000000011"/>
                                        </Node>
                                        <Node score="-0.0765278275411839">
                                            <SimplePredicate field="petal_length" operator="greaterThan" value="4.9500000000000011"/>
                                        </Node>
                                    </Node>
                                </Node>
                            </TreeModel>
                        </Segment>
                        <Segment id="5" weight="1">
                            <True/>
                            <TreeModel modelName="DecisionTreeModel" functionName="regression" missingValuePenalty="1.0" noTrueChildStrategy="returnLastPrediction">
                                <MiningSchema>
                                    <MiningField name="sepal_length" usageType="active"/>
                                    <MiningField name="sepal_width" usageType="active"/>
                                    <MiningField name="petal_length" usageType="active"/>
                                    <MiningField name="petal_width" usageType="active"/>
                                </MiningSchema>
                                <Node>
                                    <True/>
                                    <Node score="-0.08184065241288413">
                                        <SimplePredicate field="petal_width" operator="lessOrEqual" value="0.5000000000000001"/>
                                    </Node>
                                    <Node>
                                        <SimplePredicate field="petal_width" operator="greaterThan" value="0.5000000000000001"/>
                                        <Node score="0.10872855092112022">
                                            <SimplePredicate field="petal_width" operator="lessOrEqual" value="1.6500000000000001"/>
                                        </Node>
                                        <Node score="-0.07191555528295522">
                                            <SimplePredicate field="petal_width" operator="greaterThan" value="1.6500000000000001"/>
                                        </Node>
                                    </Node>
                                </Node>
                            </TreeModel>
                        </Segment>
                        <Segment id="6" weight="1">
                            <True/>
                            <TreeModel modelName="DecisionTreeModel" functionName="regression" missingValuePenalty="1.0" noTrueChildStrategy="returnLastPrediction">
                                <MiningSchema>
                                    <MiningField name="sepal_length" usageType="active"/>
                                    <MiningField name="sepal_width" usageType="active"/>
                                    <MiningField name="petal_length" usageType="active"/>
                                    <MiningField name="petal_width" usageType="active"/>
                                </MiningSchema>
                                <Node>
                                    <True/>
                                    <Node score="-0.08038733618693589">
                                        <SimplePredicate field="petal_length" operator="lessOrEqual" value="1.8000000000000000"/>
                                    </Node>
                                    <Node>
                                        <SimplePredicate field="petal_length" operator="greaterThan" value="1.8000000000000000"/>
                                        <Node score="0.09667439717826919">
                                            <SimplePredicate field="petal_length" operator="lessOrEqual" value="4.9500000000000011"/>
                                        </Node>
                                        <Node score="-0.07291060398292191">
                                            <SimplePredicate field="petal_length" operator="greaterThan" value="4.9500000000000011"/>
                                        </Node>
                                    </Node>
                                </Node>
                            </TreeModel>
                        </Segment>
                        <Segment id="7" weight="1">
                            <True/>
                            <TreeModel modelName="DecisionTreeModel" functionName="regression" missingValuePenalty="1.0" noTrueChildStrategy="returnLastPrediction">
                                <MiningSchema>
                                    <MiningField name="sepal_length" usageType="active"/>
                                    <MiningField name="sepal_width" usageType="active"/>
                                    <MiningField name="petal_length" usageType="active"/>
                                    <MiningField name="petal_width" usageType="active"/>
                                </MiningSchema>
                                <Node>
                                    <True/>
                                    <Node score="-0.07867947937040705">
                                        <SimplePredicate field="petal_width" operator="lessOrEqual" value="0.5000000000000001"/>
                                    </Node>
                                    <Node>
                                        <SimplePredicate field="petal_width" operator="greaterThan" value="0.5000000000000001"/>
                                        <Node score="0.09041173351830203">
                                            <SimplePredicate field="petal_width" operator="lessOrEqual" value="1.6500000000000001"/>
                                        </Node>
                                        <Node score="-0.0678141972722343">
                                            <SimplePredicate field="petal_width" operator="greaterThan" value="1.6500000000000001"/>
                                        </Node>
                                    </Node>
                                </Node>
                            </TreeModel>
                        </Segment>
                        <Segment id="8" weight="1">
                            <True/>
                            <TreeModel modelName="DecisionTreeModel" functionName="regression" missingValuePenalty="1.0" noTrueChildStrategy="returnLastPrediction">
                                <MiningSchema>
                                    <MiningField name="sepal_length" usageType="active"/>
                                    <MiningField name="sepal_width" usageType="active"/>
                                    <MiningField name="petal_length" usageType="active"/>
                                    <MiningField name="petal_width" usageType="active"/>
                                </MiningSchema>
                                <Node>
                                    <True/>
                                    <Node score="-0.07758744733479131">
                                        <SimplePredicate field="petal_length" operator="lessOrEqual" value="1.8000000000000000"/>
                                    </Node>
                                    <Node>
                                        <SimplePredicate field="petal_length" operator="greaterThan" value="1.8000000000000000"/>
                                        <Node score="0.08284263707650591">
                                            <SimplePredicate field="petal_length" operator="lessOrEqual" value="4.9500000000000011"/>
                                        </Node>
                                        <Node score="-0.07001510462237047">
                                            <SimplePredicate field="petal_length" operator="greaterThan" value="4.9500000000000011"/>
                                        </Node>
                                    </Node>
                                </Node>
                            </TreeModel>
                        </Segment>
                        <Segment id="9" weight="1">
                            <True/>
                            <TreeModel modelName="DecisionTreeModel" functionName="regression" missingValuePenalty="1.0" noTrueChildStrategy="returnLastPrediction">
                                <MiningSchema>
                                    <MiningField name="sepal_length" usageType="active"/>
                                    <MiningField name="sepal_width" usageType="active"/>
                                    <MiningField name="petal_length" usageType="active"/>
                                    <MiningField name="petal_width" usageType="active"/>
                                </MiningSchema>
                                <Node>
                                    <True/>
                                    <Node score="-0.07630944854403615">
                                        <SimplePredicate field="petal_width" operator="lessOrEqual" value="0.5000000000000001"/>
                                    </Node>
                                    <Node>
                                        <SimplePredicate field="petal_width" operator="greaterThan" value="0.5000000000000001"/>
                                        <Node score="0.07819252176057623">
                                            <SimplePredicate field="petal_width" operator="lessOrEqual" value="1.6500000000000001"/>
                                        </Node>
                                        <Node score="-0.06415556558067755">
                                            <SimplePredicate field="petal_width" operator="greaterThan" value="1.6500000000000001"/>
                                        </Node>
                                    </Node>
                                </Node>
                            </TreeModel>
                        </Segment>
                        <Segment id="10" weight="1">
                            <True/>
                            <TreeModel modelName="DecisionTreeModel" functionName="regression" missingValuePenalty="1.0" noTrueChildStrategy="returnLastPrediction">
                                <MiningSchema>
                                    <MiningField name="sepal_length" usageType="active"/>
                                    <MiningField name="sepal_width" usageType="active"/>
                                    <MiningField name="petal_length" usageType="active"/>
                                    <MiningField name="petal_width" usageType="active"/>
                                </MiningSchema>
                                <Node>
                                    <True/>
                                    <Node score="-0.07556201509164855">
                                        <SimplePredicate field="petal_length" operator="lessOrEqual" value="1.8000000000000000"/>
                                    </Node>
                                    <Node>
                                        <SimplePredicate field="petal_length" operator="greaterThan" value="1.8000000000000000"/>
                                        <Node score="0.07260143322325276">
                                            <SimplePredicate field="petal_length" operator="lessOrEqual" value="4.9500000000000011"/>
                                        </Node>
                                        <Node score="-0.06644395092545377">
                                            <SimplePredicate field="petal_length" operator="greaterThan" value="4.9500000000000011"/>
                                        </Node>
                                    </Node>
                                </Node>
                            </TreeModel>
                        </Segment>
                        <Segment id="11" weight="1">
                            <True/>
                            <TreeModel modelName="DecisionTreeModel" functionName="regression" missingValuePenalty="1.0" noTrueChildStrategy="returnLastPrediction">
                                <MiningSchema>
                                    <MiningField name="sepal_length" usageType="active"/>
                                    <MiningField name="sepal_width" usageType="active"/>
                                    <MiningField name="petal_length" usageType="active"/>
                                    <MiningField name="petal_width" usageType="active"/>
                                </MiningSchema>
                                <Node>
                                    <True/>
                                    <Node score="-0.07485559969845862">
                                        <SimplePredicate field="petal_width" operator="lessOrEqual" value="0.5000000000000001"/>
                                    </Node>
                                    <Node>
                                        <SimplePredicate field="petal_width" operator="greaterThan" value="0.5000000000000001"/>
                                        <Node score="0.07014787181210495">
                                            <SimplePredicate field="petal_width" operator="lessOrEqual" value="1.6500000000000001"/>
                                        </Node>
                                        <Node score="-0.06127610780914422">
                                            <SimplePredicate field="petal_width" operator="greaterThan" value="1.6500000000000001"/>
                                        </Node>
                                    </Node>
                                </Node>
                            </TreeModel>
                        </Segment>
                        <Segment id="12" weight="1">
                            <True/>
                            <TreeModel modelName="DecisionTreeModel" functionName="regression" missingValuePenalty="1.0" noTrueChildStrategy="returnLastPrediction">
                                <MiningSchema>
                                    <MiningField name="sepal_length" usageType="active"/>
                                    <MiningField name="sepal_width" usageType="active"/>
                                    <MiningField name="petal_length" usageType="active"/>
                                    <MiningField name="petal_width" usageType="active"/>
                                </MiningSchema>
                                <Node>
                                    <True/>
                                    <Node>
                                        <SimplePredicate field="petal_length" operator="lessOrEqual" value="5.1500000000000012"/>
                                        <Node score="-0.07437975697432042">
                                            <SimplePredicate field="petal_length" operator="lessOrEqual" value="1.8000000000000000"/>
                                        </Node>
                                        <Node score="0.05361594089572248">
                                            <SimplePredicate field="petal_length" operator="greaterThan" value="1.8000000000000000"/>
                                        </Node>
                                    </Node>
                                    <Node score="-0.08110897919439013">
                                        <SimplePredicate field="petal_length" operator="greaterThan" value="5.1500000000000012"/>
                                    </Node>
                                </Node>
                            </TreeModel>
                        </Segment>
                        <Segment id="13" weight="1">
                            <True/>
                            <TreeModel modelName="DecisionTreeModel" functionName="regression" missingValuePenalty="1.0" noTrueChildStrategy="returnLastPrediction">
                                <MiningSchema>
                                    <MiningField name="sepal_length" usageType="active"/>
                                    <MiningField name="sepal_width" usageType="active"/>
                                    <MiningField name="petal_length" usageType="active"/>
                                    <MiningField name="petal_width" usageType="active"/>
                                </MiningSchema>
                                <Node>
                                    <True/>
                                    <Node>
                                        <SimplePredicate field="petal_length" operator="lessOrEqual" value="4.9500000000000011"/>
                                        <Node score="-0.07358094224315234">
                                            <SimplePredicate field="petal_length" operator="lessOrEqual" value="1.8000000000000000"/>
                                        </Node>
                                        <Node score="0.06086639698556826">
                                            <SimplePredicate field="petal_length" operator="greaterThan" value="1.8000000000000000"/>
                                        </Node>
                                    </Node>
                                    <Node score="-0.0619004667494">
                                        <SimplePredicate field="petal_length" operator="greaterThan" value="4.9500000000000011"/>
                                    </Node>
                                </Node>
                            </TreeModel>
                        </Segment>
                        <Segment id="14" weight="1">
                            <True/>
                            <TreeModel modelName="DecisionTreeModel" functionName="regression" missingValuePenalty="1.0" noTrueChildStrategy="returnLastPrediction">
                                <MiningSchema>
                                    <MiningField name="sepal_length" usageType="active"/>
                                    <MiningField name="sepal_width" usageType="active"/>
                                    <MiningField name="petal_length" usageType="active"/>
                                    <MiningField name="petal_width" usageType="active"/>
                                </MiningSchema>
                                <Node>
                                    <True/>
                                    <Node>
                                        <SimplePredicate field="petal_length" operator="lessOrEqual" value="5.1500000000000012"/>
                                        <Node score="-0.04942915743116481">
                                            <SimplePredicate field="petal_length" operator="lessOrEqual" value="3.4500000000000006"/>
                                        </Node>
                                        <Node score="0.04944778575149375">
                                            <SimplePredicate field="petal_length" operator="greaterThan" value="3.4500000000000006"/>
                                        </Node>
                                    </Node>
                                    <Node score="-0.07977477662452614">
                                        <SimplePredicate field="petal_length" operator="greaterThan" value="5.1500000000000012"/>
                                    </Node>
                                </Node>
                            </TreeModel>
                        </Segment>
                        <Segment id="15" weight="1">
                            <True/>
                            <TreeModel modelName="DecisionTreeModel" functionName="regression" missingValuePenalty="1.0" noTrueChildStrategy="returnLastPrediction">
                                <MiningSchema>
                                    <MiningField name="sepal_length" usageType="active"/>
                                    <MiningField name="sepal_width" usageType="active"/>
                                    <MiningField name="petal_length" usageType="active"/>
                                    <MiningField name="petal_width" usageType="active"/>
                                </MiningSchema>
                                <Node>
                                    <True/>
                                    <Node>
                                        <SimplePredicate field="petal_length" operator="lessOrEqual" value="4.9500000000000011"/>
                                        <Node score="-0.04723750159423539">
                                            <SimplePredicate field="petal_length" operator="lessOrEqual" value="3.4500000000000006"/>
                                        </Node>
                                        <Node score="0.05836330438776526">
                                            <SimplePredicate field="petal_length" operator="greaterThan" value="3.4500000000000006"/>
                                        </Node>
                                    </Node>
                                    <Node score="-0.05922439756904094">
                                        <SimplePredicate field="petal_length" operator="greaterThan" value="4.9500000000000011"/>
                                    </Node>
                                </Node>
                            </TreeModel>
                        </Segment>
                        <Segment id="16" weight="1">
                            <True/>
                            <TreeModel modelName="DecisionTreeModel" functionName="regression" missingValuePenalty="1.0" noTrueChildStrategy="returnLastPrediction">
                                <MiningSchema>
                                    <MiningField name="sepal_length" usageType="active"/>
                                    <MiningField name="sepal_width" usageType="active"/>
                                    <MiningField name="petal_length" usageType="active"/>
                                    <MiningField name="petal_width" usageType="active"/>
                                </MiningSchema>
                                <Node>
                                    <True/>
                                    <Node>
                                        <SimplePredicate field="petal_width" operator="lessOrEqual" value="1.6500000000000001"/>
                                        <Node score="-0.045018388702662816">
                                            <SimplePredicate field="petal_length" operator="lessOrEqual" value="3.4500000000000006"/>
                                        </Node>
                                        <Node score="0.060100051024123205">
                                            <SimplePredicate field="petal_length" operator="greaterThan" value="3.4500000000000006"/>
                                        </Node>
                                    </Node>
                                    <Node score="-0.05528926199577956">
                                        <SimplePredicate field="petal_width" operator="greaterThan" value="1.6500000000000001"/>
                                    </Node>
                                </Node>
                            </TreeModel>
                        </Segment>
                        <Segment id="17" weight="1">
                            <True/>
                            <TreeModel modelName="DecisionTreeModel" functionName="regression" missingValuePenalty="1.0" noTrueChildStrategy="returnLastPrediction">
                                <MiningSchema>
                                    <MiningField name="sepal_length" usageType="active"/>
                                    <MiningField name="sepal_width" usageType="active"/>
                                    <MiningField name="petal_length" usageType="active"/>
